digraph Tree {
node [shape=box] ;
0 [label="X[5] <= 0.5\ngini = 0.499\nsamples = 442\nvalue = [214, 228]"] ;
1 [label="X[51] <= 0.5\ngini = 0.462\nsamples = 312\nvalue = [113, 199]"] ;
0 -> 1 [labeldistance=2.5, labelangle=45, headlabel="True"] ;
2 [label="X[22] <= 0.5\ngini = 0.44\nsamples = 288\nvalue = [94, 194]"] ;
1 -> 2 ;
3 [label="X[78] <= 0.5\ngini = 0.421\nsamples = 275\nvalue = [83, 192]"] ;
2 -> 3 ;
4 [label="X[83] <= 0.5\ngini = 0.407\nsamples = 267\nvalue = [76, 191]"] ;
3 -> 4 ;
5 [label="X[80] <= 0.5\ngini = 0.398\nsamples = 263\nvalue = [72, 191]"] ;
4 -> 5 ;
6 [label="X[14] <= 0.5\ngini = 0.39\nsamples = 260\nvalue = [69, 191]"] ;
5 -> 6 ;
7 [label="X[0] <= 0.5\ngini = 0.409\nsamples = 241\nvalue = [69, 172]"] ;
6 -> 7 ;
8 [label="X[16] <= 0.5\ngini = 0.436\nsamples = 190\nvalue = [61, 129]"] ;
7 -> 8 ;
9 [label="X[12] <= 0.5\ngini = 0.417\nsamples = 179\nvalue = [53, 126]"] ;
8 -> 9 ;
10 [label="X[62] <= 0.5\ngini = 0.406\nsamples = 173\nvalue = [49, 124]"] ;
9 -> 10 ;
11 [label="X[7] <= 0.5\ngini = 0.396\nsamples = 169\nvalue = [46, 123]"] ;
10 -> 11 ;
12 [label="X[59] <= 0.5\ngini = 0.408\nsamples = 161\nvalue = [46, 115]"] ;
11 -> 12 ;
13 [label="X[27] <= 0.5\ngini = 0.398\nsamples = 157\nvalue = [43, 114]"] ;
12 -> 13 ;
14 [label="X[53] <= 0.5\ngini = 0.388\nsamples = 152\nvalue = [40, 112]"] ;
13 -> 14 ;
15 [label="X[76] <= 0.5\ngini = 0.383\nsamples = 151\nvalue = [39, 112]"] ;
14 -> 15 ;
16 [label="X[36] <= 0.5\ngini = 0.378\nsamples = 150\nvalue = [38, 112]"] ;
15 -> 16 ;
17 [label="X[61] <= 0.5\ngini = 0.373\nsamples = 149\nvalue = [37, 112]"] ;
16 -> 17 ;
18 [label="X[30] <= 0.5\ngini = 0.368\nsamples = 148\nvalue = [36, 112]"] ;
17 -> 18 ;
19 [label="X[17] <= 0.5\ngini = 0.377\nsamples = 143\nvalue = [36, 107]"] ;
18 -> 19 ;
20 [label="X[52] <= 0.5\ngini = 0.386\nsamples = 138\nvalue = [36, 102]"] ;
19 -> 20 ;
21 [label="X[28] <= 0.5\ngini = 0.38\nsamples = 137\nvalue = [35, 102]"] ;
20 -> 21 ;
22 [label="X[25] <= 0.5\ngini = 0.371\nsamples = 134\nvalue = [33, 101]"] ;
21 -> 22 ;
23 [label="X[31] <= 0.5\ngini = 0.377\nsamples = 131\nvalue = [33, 98]"] ;
22 -> 23 ;
24 [label="X[2] <= 0.5\ngini = 0.383\nsamples = 128\nvalue = [33, 95]"] ;
23 -> 24 ;
25 [label="X[21] <= 0.5\ngini = 0.389\nsamples = 125\nvalue = [33, 92]"] ;
24 -> 25 ;
26 [label="X[8] <= 0.5\ngini = 0.393\nsamples = 123\nvalue = [33, 90]"] ;
25 -> 26 ;
27 [label="X[9] <= 0.5\ngini = 0.387\nsamples = 122\nvalue = [32, 90]"] ;
26 -> 27 ;
28 [label="X[20] <= 0.5\ngini = 0.381\nsamples = 121\nvalue = [31, 90]"] ;
27 -> 28 ;
29 [label="X[58] <= 0.5\ngini = 0.385\nsamples = 119\nvalue = [31, 88]"] ;
28 -> 29 ;
30 [label="X[60] <= 0.5\ngini = 0.379\nsamples = 118\nvalue = [30, 88]"] ;
29 -> 30 ;
31 [label="X[68] <= 0.5\ngini = 0.373\nsamples = 117\nvalue = [29, 88]"] ;
30 -> 31 ;
32 [label="X[42] <= 0.5\ngini = 0.366\nsamples = 116\nvalue = [28, 88]"] ;
31 -> 32 ;
33 [label="X[66] <= 0.5\ngini = 0.361\nsamples = 114\nvalue = [27, 87]"] ;
32 -> 33 ;
34 [label="X[79] <= 0.5\ngini = 0.357\nsamples = 112\nvalue = [26, 86]"] ;
33 -> 34 ;
35 [label="X[11] <= 0.5\ngini = 0.351\nsamples = 110\nvalue = [25, 85]"] ;
34 -> 35 ;
36 [label="X[39] <= 0.5\ngini = 0.358\nsamples = 107\nvalue = [25, 82]"] ;
35 -> 36 ;
37 [label="X[65] <= 0.5\ngini = 0.363\nsamples = 105\nvalue = [25, 80]"] ;
36 -> 37 ;
38 [label="X[24] <= 0.5\ngini = 0.368\nsamples = 103\nvalue = [25, 78]"] ;
37 -> 38 ;
39 [label="X[35] <= 0.5\ngini = 0.373\nsamples = 101\nvalue = [25, 76]"] ;
38 -> 39 ;
40 [label="X[3] <= 0.5\ngini = 0.378\nsamples = 99\nvalue = [25, 74]"] ;
39 -> 40 ;
41 [label="X[15] <= 0.5\ngini = 0.383\nsamples = 97\nvalue = [25, 72]"] ;
40 -> 41 ;
42 [label="X[67] <= 0.5\ngini = 0.378\nsamples = 95\nvalue = [24, 71]"] ;
41 -> 42 ;
43 [label="X[63] <= 0.5\ngini = 0.38\nsamples = 94\nvalue = [24, 70]"] ;
42 -> 43 ;
44 [label="X[23] <= 0.5\ngini = 0.383\nsamples = 93\nvalue = [24, 69]"] ;
43 -> 44 ;
45 [label="X[1] <= 0.5\ngini = 0.386\nsamples = 92\nvalue = [24, 68]"] ;
44 -> 45 ;
46 [label="X[45] <= 0.5\ngini = 0.375\nsamples = 80\nvalue = [20, 60]"] ;
45 -> 46 ;
47 [label="X[44] <= 0.5\ngini = 0.369\nsamples = 78\nvalue = [19, 59]"] ;
46 -> 47 ;
48 [label="X[48] <= 0.5\ngini = 0.372\nsamples = 77\nvalue = [19, 58]"] ;
47 -> 48 ;
49 [label="gini = 0.375\nsamples = 76\nvalue = [19, 57]"] ;
48 -> 49 ;
50 [label="gini = 0.0\nsamples = 1\nvalue = [0, 1]"] ;
48 -> 50 ;
51 [label="gini = 0.0\nsamples = 1\nvalue = [0, 1]"] ;
47 -> 51 ;
52 [label="gini = 0.5\nsamples = 2\nvalue = [1, 1]"] ;
46 -> 52 ;
53 [label="X[45] <= 0.5\ngini = 0.444\nsamples = 12\nvalue = [4, 8]"] ;
45 -> 53 ;
54 [label="gini = 0.48\nsamples = 10\nvalue = [4, 6]"] ;
53 -> 54 ;
55 [label="gini = 0.0\nsamples = 2\nvalue = [0, 2]"] ;
53 -> 55 ;
56 [label="gini = 0.0\nsamples = 1\nvalue = [0, 1]"] ;
44 -> 56 ;
57 [label="gini = 0.0\nsamples = 1\nvalue = [0, 1]"] ;
43 -> 57 ;
58 [label="gini = 0.0\nsamples = 1\nvalue = [0, 1]"] ;
42 -> 58 ;
59 [label="gini = 0.5\nsamples = 2\nvalue = [1, 1]"] ;
41 -> 59 ;
60 [label="gini = 0.0\nsamples = 2\nvalue = [0, 2]"] ;
40 -> 60 ;
61 [label="gini = 0.0\nsamples = 2\nvalue = [0, 2]"] ;
39 -> 61 ;
62 [label="gini = 0.0\nsamples = 2\nvalue = [0, 2]"] ;
38 -> 62 ;
63 [label="gini = 0.0\nsamples = 2\nvalue = [0, 2]"] ;
37 -> 63 ;
64 [label="gini = 0.0\nsamples = 2\nvalue = [0, 2]"] ;
36 -> 64 ;
65 [label="gini = 0.0\nsamples = 3\nvalue = [0, 3]"] ;
35 -> 65 ;
66 [label="X[11] <= 0.5\ngini = 0.5\nsamples = 2\nvalue = [1, 1]"] ;
34 -> 66 ;
67 [label="gini = 0.0\nsamples = 1\nvalue = [0, 1]"] ;
66 -> 67 ;
68 [label="gini = 0.0\nsamples = 1\nvalue = [1, 0]"] ;
66 -> 68 ;
69 [label="X[44] <= 0.5\ngini = 0.5\nsamples = 2\nvalue = [1, 1]"] ;
33 -> 69 ;
70 [label="gini = 0.0\nsamples = 1\nvalue = [1, 0]"] ;
69 -> 70 ;
71 [label="gini = 0.0\nsamples = 1\nvalue = [0, 1]"] ;
69 -> 71 ;
72 [label="X[75] <= 0.5\ngini = 0.5\nsamples = 2\nvalue = [1, 1]"] ;
32 -> 72 ;
73 [label="gini = 0.0\nsamples = 1\nvalue = [1, 0]"] ;
72 -> 73 ;
74 [label="gini = 0.0\nsamples = 1\nvalue = [0, 1]"] ;
72 -> 74 ;
75 [label="gini = 0.0\nsamples = 1\nvalue = [1, 0]"] ;
31 -> 75 ;
76 [label="gini = 0.0\nsamples = 1\nvalue = [1, 0]"] ;
30 -> 76 ;
77 [label="gini = 0.0\nsamples = 1\nvalue = [1, 0]"] ;
29 -> 77 ;
78 [label="gini = 0.0\nsamples = 2\nvalue = [0, 2]"] ;
28 -> 78 ;
79 [label="gini = 0.0\nsamples = 1\nvalue = [1, 0]"] ;
27 -> 79 ;
80 [label="gini = 0.0\nsamples = 1\nvalue = [1, 0]"] ;
26 -> 80 ;
81 [label="gini = 0.0\nsamples = 2\nvalue = [0, 2]"] ;
25 -> 81 ;
82 [label="gini = 0.0\nsamples = 3\nvalue = [0, 3]"] ;
24 -> 82 ;
83 [label="gini = 0.0\nsamples = 3\nvalue = [0, 3]"] ;
23 -> 83 ;
84 [label="gini = 0.0\nsamples = 3\nvalue = [0, 3]"] ;
22 -> 84 ;
85 [label="X[68] <= 0.5\ngini = 0.444\nsamples = 3\nvalue = [2, 1]"] ;
21 -> 85 ;
86 [label="gini = 0.0\nsamples = 2\nvalue = [2, 0]"] ;
85 -> 86 ;
87 [label="gini = 0.0\nsamples = 1\nvalue = [0, 1]"] ;
85 -> 87 ;
88 [label="gini = 0.0\nsamples = 1\nvalue = [1, 0]"] ;
20 -> 88 ;
89 [label="gini = 0.0\nsamples = 5\nvalue = [0, 5]"] ;
19 -> 89 ;
90 [label="gini = 0.0\nsamples = 5\nvalue = [0, 5]"] ;
18 -> 90 ;
91 [label="gini = 0.0\nsamples = 1\nvalue = [1, 0]"] ;
17 -> 91 ;
92 [label="gini = 0.0\nsamples = 1\nvalue = [1, 0]"] ;
16 -> 92 ;
93 [label="gini = 0.0\nsamples = 1\nvalue = [1, 0]"] ;
15 -> 93 ;
94 [label="gini = 0.0\nsamples = 1\nvalue = [1, 0]"] ;
14 -> 94 ;
95 [label="X[21] <= 0.5\ngini = 0.48\nsamples = 5\nvalue = [3, 2]"] ;
13 -> 95 ;
96 [label="X[70] <= 0.5\ngini = 0.375\nsamples = 4\nvalue = [3, 1]"] ;
95 -> 96 ;
97 [label="gini = 0.0\nsamples = 3\nvalue = [3, 0]"] ;
96 -> 97 ;
98 [label="gini = 0.0\nsamples = 1\nvalue = [0, 1]"] ;
96 -> 98 ;
99 [label="gini = 0.0\nsamples = 1\nvalue = [0, 1]"] ;
95 -> 99 ;
100 [label="X[74] <= 0.5\ngini = 0.375\nsamples = 4\nvalue = [3, 1]"] ;
12 -> 100 ;
101 [label="gini = 0.0\nsamples = 3\nvalue = [3, 0]"] ;
100 -> 101 ;
102 [label="gini = 0.0\nsamples = 1\nvalue = [0, 1]"] ;
100 -> 102 ;
103 [label="gini = 0.0\nsamples = 8\nvalue = [0, 8]"] ;
11 -> 103 ;
104 [label="X[82] <= 0.5\ngini = 0.375\nsamples = 4\nvalue = [3, 1]"] ;
10 -> 104 ;
105 [label="gini = 0.0\nsamples = 2\nvalue = [2, 0]"] ;
104 -> 105 ;
106 [label="X[11] <= 0.5\ngini = 0.5\nsamples = 2\nvalue = [1, 1]"] ;
104 -> 106 ;
107 [label="gini = 0.0\nsamples = 1\nvalue = [0, 1]"] ;
106 -> 107 ;
108 [label="gini = 0.0\nsamples = 1\nvalue = [1, 0]"] ;
106 -> 108 ;
109 [label="X[1] <= 0.5\ngini = 0.444\nsamples = 6\nvalue = [4, 2]"] ;
9 -> 109 ;
110 [label="gini = 0.0\nsamples = 1\nvalue = [0, 1]"] ;
109 -> 110 ;
111 [label="X[3] <= 0.5\ngini = 0.32\nsamples = 5\nvalue = [4, 1]"] ;
109 -> 111 ;
112 [label="gini = 0.0\nsamples = 4\nvalue = [4, 0]"] ;
111 -> 112 ;
113 [label="gini = 0.0\nsamples = 1\nvalue = [0, 1]"] ;
111 -> 113 ;
114 [label="X[60] <= 0.5\ngini = 0.397\nsamples = 11\nvalue = [8, 3]"] ;
8 -> 114 ;
115 [label="X[72] <= 0.5\ngini = 0.32\nsamples = 10\nvalue = [8, 2]"] ;
114 -> 115 ;
116 [label="X[35] <= 0.5\ngini = 0.198\nsamples = 9\nvalue = [8, 1]"] ;
115 -> 116 ;
117 [label="gini = 0.0\nsamples = 8\nvalue = [8, 0]"] ;
116 -> 117 ;
118 [label="gini = 0.0\nsamples = 1\nvalue = [0, 1]"] ;
116 -> 118 ;
119 [label="gini = 0.0\nsamples = 1\nvalue = [0, 1]"] ;
115 -> 119 ;
120 [label="gini = 0.0\nsamples = 1\nvalue = [0, 1]"] ;
114 -> 120 ;
121 [label="X[64] <= 0.5\ngini = 0.265\nsamples = 51\nvalue = [8, 43]"] ;
7 -> 121 ;
122 [label="X[20] <= 0.5\ngini = 0.215\nsamples = 49\nvalue = [6, 43]"] ;
121 -> 122 ;
123 [label="X[69] <= 0.5\ngini = 0.159\nsamples = 46\nvalue = [4, 42]"] ;
122 -> 123 ;
124 [label="X[1] <= 0.5\ngini = 0.124\nsamples = 45\nvalue = [3, 42]"] ;
123 -> 124 ;
125 [label="X[3] <= 0.5\ngini = 0.095\nsamples = 40\nvalue = [2, 38]"] ;
124 -> 125 ;
126 [label="gini = 0.0\nsamples = 26\nvalue = [0, 26]"] ;
125 -> 126 ;
127 [label="X[18] <= 0.5\ngini = 0.245\nsamples = 14\nvalue = [2, 12]"] ;
125 -> 127 ;
128 [label="X[6] <= 0.5\ngini = 0.375\nsamples = 8\nvalue = [2, 6]"] ;
127 -> 128 ;
129 [label="X[53] <= 0.5\ngini = 0.48\nsamples = 5\nvalue = [2, 3]"] ;
128 -> 129 ;
130 [label="X[4] <= 0.5\ngini = 0.5\nsamples = 4\nvalue = [2, 2]"] ;
129 -> 130 ;
131 [label="X[17] <= 0.5\ngini = 0.444\nsamples = 3\nvalue = [1, 2]"] ;
130 -> 131 ;
132 [label="gini = 0.5\nsamples = 2\nvalue = [1, 1]"] ;
131 -> 132 ;
133 [label="gini = 0.0\nsamples = 1\nvalue = [0, 1]"] ;
131 -> 133 ;
134 [label="gini = 0.0\nsamples = 1\nvalue = [1, 0]"] ;
130 -> 134 ;
135 [label="gini = 0.0\nsamples = 1\nvalue = [0, 1]"] ;
129 -> 135 ;
136 [label="gini = 0.0\nsamples = 3\nvalue = [0, 3]"] ;
128 -> 136 ;
137 [label="gini = 0.0\nsamples = 6\nvalue = [0, 6]"] ;
127 -> 137 ;
138 [label="X[12] <= 0.5\ngini = 0.32\nsamples = 5\nvalue = [1, 4]"] ;
124 -> 138 ;
139 [label="X[79] <= 0.5\ngini = 0.5\nsamples = 2\nvalue = [1, 1]"] ;
138 -> 139 ;
140 [label="gini = 0.0\nsamples = 1\nvalue = [1, 0]"] ;
139 -> 140 ;
141 [label="gini = 0.0\nsamples = 1\nvalue = [0, 1]"] ;
139 -> 141 ;
142 [label="gini = 0.0\nsamples = 3\nvalue = [0, 3]"] ;
138 -> 142 ;
143 [label="gini = 0.0\nsamples = 1\nvalue = [1, 0]"] ;
123 -> 143 ;
144 [label="X[15] <= 0.5\ngini = 0.444\nsamples = 3\nvalue = [2, 1]"] ;
122 -> 144 ;
145 [label="gini = 0.0\nsamples = 1\nvalue = [0, 1]"] ;
144 -> 145 ;
146 [label="gini = 0.0\nsamples = 2\nvalue = [2, 0]"] ;
144 -> 146 ;
147 [label="gini = 0.0\nsamples = 2\nvalue = [2, 0]"] ;
121 -> 147 ;
148 [label="gini = 0.0\nsamples = 19\nvalue = [0, 19]"] ;
6 -> 148 ;
149 [label="gini = 0.0\nsamples = 3\nvalue = [3, 0]"] ;
5 -> 149 ;
150 [label="gini = 0.0\nsamples = 4\nvalue = [4, 0]"] ;
4 -> 150 ;
151 [label="X[2] <= 0.5\ngini = 0.219\nsamples = 8\nvalue = [7, 1]"] ;
3 -> 151 ;
152 [label="gini = 0.0\nsamples = 7\nvalue = [7, 0]"] ;
151 -> 152 ;
153 [label="gini = 0.0\nsamples = 1\nvalue = [0, 1]"] ;
151 -> 153 ;
154 [label="X[2] <= 0.5\ngini = 0.26\nsamples = 13\nvalue = [11, 2]"] ;
2 -> 154 ;
155 [label="X[27] <= 0.5\ngini = 0.153\nsamples = 12\nvalue = [11, 1]"] ;
154 -> 155 ;
156 [label="gini = 0.0\nsamples = 11\nvalue = [11, 0]"] ;
155 -> 156 ;
157 [label="gini = 0.0\nsamples = 1\nvalue = [0, 1]"] ;
155 -> 157 ;
158 [label="gini = 0.0\nsamples = 1\nvalue = [0, 1]"] ;
154 -> 158 ;
159 [label="X[33] <= 0.5\ngini = 0.33\nsamples = 24\nvalue = [19, 5]"] ;
1 -> 159 ;
160 [label="X[68] <= 0.5\ngini = 0.287\nsamples = 23\nvalue = [19, 4]"] ;
159 -> 160 ;
161 [label="X[79] <= 0.5\ngini = 0.391\nsamples = 15\nvalue = [11, 4]"] ;
160 -> 161 ;
162 [label="X[11] <= 0.5\ngini = 0.278\nsamples = 12\nvalue = [10, 2]"] ;
161 -> 162 ;
163 [label="X[78] <= 0.5\ngini = 0.165\nsamples = 11\nvalue = [10, 1]"] ;
162 -> 163 ;
164 [label="gini = 0.0\nsamples = 8\nvalue = [8, 0]"] ;
163 -> 164 ;
165 [label="X[28] <= 0.5\ngini = 0.444\nsamples = 3\nvalue = [2, 1]"] ;
163 -> 165 ;
166 [label="gini = 0.0\nsamples = 2\nvalue = [2, 0]"] ;
165 -> 166 ;
167 [label="gini = 0.0\nsamples = 1\nvalue = [0, 1]"] ;
165 -> 167 ;
168 [label="gini = 0.0\nsamples = 1\nvalue = [0, 1]"] ;
162 -> 168 ;
169 [label="X[64] <= 0.5\ngini = 0.444\nsamples = 3\nvalue = [1, 2]"] ;
161 -> 169 ;
170 [label="gini = 0.0\nsamples = 2\nvalue = [0, 2]"] ;
169 -> 170 ;
171 [label="gini = 0.0\nsamples = 1\nvalue = [1, 0]"] ;
169 -> 171 ;
172 [label="gini = 0.0\nsamples = 8\nvalue = [8, 0]"] ;
160 -> 172 ;
173 [label="gini = 0.0\nsamples = 1\nvalue = [0, 1]"] ;
159 -> 173 ;
174 [label="X[0] <= 0.5\ngini = 0.347\nsamples = 130\nvalue = [101, 29]"] ;
0 -> 174 [labeldistance=2.5, labelangle=-45, headlabel="False"] ;
175 [label="X[47] <= 0.5\ngini = 0.229\nsamples = 91\nvalue = [79, 12]"] ;
174 -> 175 ;
176 [label="X[41] <= 0.5\ngini = 0.215\nsamples = 90\nvalue = [79, 11]"] ;
175 -> 176 ;
177 [label="X[27] <= 0.5\ngini = 0.163\nsamples = 78\nvalue = [71, 7]"] ;
176 -> 177 ;
178 [label="X[52] <= 0.5\ngini = 0.219\nsamples = 56\nvalue = [49, 7]"] ;
177 -> 178 ;
179 [label="X[36] <= 0.5\ngini = 0.194\nsamples = 55\nvalue = [49, 6]"] ;
178 -> 179 ;
180 [label="X[1] <= 0.5\ngini = 0.171\nsamples = 53\nvalue = [48, 5]"] ;
179 -> 180 ;
181 [label="X[15] <= 0.5\ngini = 0.271\nsamples = 31\nvalue = [26, 5]"] ;
180 -> 181 ;
182 [label="X[63] <= 0.5\ngini = 0.238\nsamples = 29\nvalue = [25, 4]"] ;
181 -> 182 ;
183 [label="X[8] <= 0.5\ngini = 0.278\nsamples = 24\nvalue = [20, 4]"] ;
182 -> 183 ;
184 [label="X[65] <= 0.5\ngini = 0.332\nsamples = 19\nvalue = [15, 4]"] ;
183 -> 184 ;
185 [label="X[12] <= 0.5\ngini = 0.375\nsamples = 16\nvalue = [12, 4]"] ;
184 -> 185 ;
186 [label="X[17] <= 0.5\ngini = 0.408\nsamples = 14\nvalue = [10, 4]"] ;
185 -> 186 ;
187 [label="X[33] <= 0.5\ngini = 0.444\nsamples = 12\nvalue = [8, 4]"] ;
186 -> 187 ;
188 [label="X[9] <= 0.5\ngini = 0.463\nsamples = 11\nvalue = [7, 4]"] ;
187 -> 188 ;
189 [label="X[20] <= 0.5\ngini = 0.48\nsamples = 10\nvalue = [6, 4]"] ;
188 -> 189 ;
190 [label="X[80] <= 0.5\ngini = 0.494\nsamples = 9\nvalue = [5, 4]"] ;
189 -> 190 ;
191 [label="gini = 0.5\nsamples = 8\nvalue = [4, 4]"] ;
190 -> 191 ;
192 [label="gini = 0.0\nsamples = 1\nvalue = [1, 0]"] ;
190 -> 192 ;
193 [label="gini = 0.0\nsamples = 1\nvalue = [1, 0]"] ;
189 -> 193 ;
194 [label="gini = 0.0\nsamples = 1\nvalue = [1, 0]"] ;
188 -> 194 ;
195 [label="gini = 0.0\nsamples = 1\nvalue = [1, 0]"] ;
187 -> 195 ;
196 [label="gini = 0.0\nsamples = 2\nvalue = [2, 0]"] ;
186 -> 196 ;
197 [label="gini = 0.0\nsamples = 2\nvalue = [2, 0]"] ;
185 -> 197 ;
198 [label="gini = 0.0\nsamples = 3\nvalue = [3, 0]"] ;
184 -> 198 ;
199 [label="gini = 0.0\nsamples = 5\nvalue = [5, 0]"] ;
183 -> 199 ;
200 [label="gini = 0.0\nsamples = 5\nvalue = [5, 0]"] ;
182 -> 200 ;
201 [label="X[16] <= 0.5\ngini = 0.5\nsamples = 2\nvalue = [1, 1]"] ;
181 -> 201 ;
202 [label="gini = 0.0\nsamples = 1\nvalue = [0, 1]"] ;
201 -> 202 ;
203 [label="gini = 0.0\nsamples = 1\nvalue = [1, 0]"] ;
201 -> 203 ;
204 [label="gini = 0.0\nsamples = 22\nvalue = [22, 0]"] ;
180 -> 204 ;
205 [label="X[58] <= 0.5\ngini = 0.5\nsamples = 2\nvalue = [1, 1]"] ;
179 -> 205 ;
206 [label="gini = 0.0\nsamples = 1\nvalue = [1, 0]"] ;
205 -> 206 ;
207 [label="gini = 0.0\nsamples = 1\nvalue = [0, 1]"] ;
205 -> 207 ;
208 [label="gini = 0.0\nsamples = 1\nvalue = [0, 1]"] ;
178 -> 208 ;
209 [label="gini = 0.0\nsamples = 22\nvalue = [22, 0]"] ;
177 -> 209 ;
210 [label="X[22] <= 0.5\ngini = 0.444\nsamples = 12\nvalue = [8, 4]"] ;
176 -> 210 ;
211 [label="gini = 0.0\nsamples = 2\nvalue = [0, 2]"] ;
210 -> 211 ;
212 [label="X[16] <= 0.5\ngini = 0.32\nsamples = 10\nvalue = [8, 2]"] ;
210 -> 212 ;
213 [label="gini = 0.0\nsamples = 7\nvalue = [7, 0]"] ;
212 -> 213 ;
214 [label="X[53] <= 0.5\ngini = 0.444\nsamples = 3\nvalue = [1, 2]"] ;
212 -> 214 ;
215 [label="gini = 0.0\nsamples = 2\nvalue = [0, 2]"] ;
214 -> 215 ;
216 [label="gini = 0.0\nsamples = 1\nvalue = [1, 0]"] ;
214 -> 216 ;
217 [label="gini = 0.0\nsamples = 1\nvalue = [0, 1]"] ;
175 -> 217 ;
218 [label="X[19] <= 0.5\ngini = 0.492\nsamples = 39\nvalue = [22, 17]"] ;
174 -> 218 ;
219 [label="X[32] <= 0.5\ngini = 0.463\nsamples = 33\nvalue = [21, 12]"] ;
218 -> 219 ;
220 [label="X[73] <= 0.5\ngini = 0.403\nsamples = 25\nvalue = [18, 7]"] ;
219 -> 220 ;
221 [label="X[41] <= 0.5\ngini = 0.465\nsamples = 19\nvalue = [12, 7]"] ;
220 -> 221 ;
222 [label="X[72] <= 0.5\ngini = 0.415\nsamples = 17\nvalue = [12, 5]"] ;
221 -> 222 ;
223 [label="X[52] <= 0.5\ngini = 0.375\nsamples = 16\nvalue = [12, 4]"] ;
222 -> 223 ;
224 [label="X[21] <= 0.5\ngini = 0.32\nsamples = 15\nvalue = [12, 3]"] ;
223 -> 224 ;
225 [label="X[36] <= 0.5\ngini = 0.245\nsamples = 14\nvalue = [12, 2]"] ;
224 -> 225 ;
226 [label="X[3] <= 0.5\ngini = 0.153\nsamples = 12\nvalue = [11, 1]"] ;
225 -> 226 ;
227 [label="gini = 0.0\nsamples = 7\nvalue = [7, 0]"] ;
226 -> 227 ;
228 [label="X[11] <= 0.5\ngini = 0.32\nsamples = 5\nvalue = [4, 1]"] ;
226 -> 228 ;
229 [label="X[10] <= 0.5\ngini = 0.444\nsamples = 3\nvalue = [2, 1]"] ;
228 -> 229 ;
230 [label="X[59] <= 0.5\ngini = 0.5\nsamples = 2\nvalue = [1, 1]"] ;
229 -> 230 ;
231 [label="gini = 0.0\nsamples = 1\nvalue = [0, 1]"] ;
230 -> 231 ;
232 [label="gini = 0.0\nsamples = 1\nvalue = [1, 0]"] ;
230 -> 232 ;
233 [label="gini = 0.0\nsamples = 1\nvalue = [1, 0]"] ;
229 -> 233 ;
234 [label="gini = 0.0\nsamples = 2\nvalue = [2, 0]"] ;
228 -> 234 ;
235 [label="X[18] <= 0.5\ngini = 0.5\nsamples = 2\nvalue = [1, 1]"] ;
225 -> 235 ;
236 [label="gini = 0.0\nsamples = 1\nvalue = [0, 1]"] ;
235 -> 236 ;
237 [label="gini = 0.0\nsamples = 1\nvalue = [1, 0]"] ;
235 -> 237 ;
238 [label="gini = 0.0\nsamples = 1\nvalue = [0, 1]"] ;
224 -> 238 ;
239 [label="gini = 0.0\nsamples = 1\nvalue = [0, 1]"] ;
223 -> 239 ;
240 [label="gini = 0.0\nsamples = 1\nvalue = [0, 1]"] ;
222 -> 240 ;
241 [label="gini = 0.0\nsamples = 2\nvalue = [0, 2]"] ;
221 -> 241 ;
242 [label="gini = 0.0\nsamples = 6\nvalue = [6, 0]"] ;
220 -> 242 ;
243 [label="X[50] <= 0.5\ngini = 0.469\nsamples = 8\nvalue = [3, 5]"] ;
219 -> 243 ;
244 [label="X[77] <= 0.5\ngini = 0.278\nsamples = 6\nvalue = [1, 5]"] ;
243 -> 244 ;
245 [label="gini = 0.0\nsamples = 5\nvalue = [0, 5]"] ;
244 -> 245 ;
246 [label="gini = 0.0\nsamples = 1\nvalue = [1, 0]"] ;
244 -> 246 ;
247 [label="gini = 0.0\nsamples = 2\nvalue = [2, 0]"] ;
243 -> 247 ;
248 [label="X[75] <= 0.5\ngini = 0.278\nsamples = 6\nvalue = [1, 5]"] ;
218 -> 248 ;
249 [label="gini = 0.0\nsamples = 5\nvalue = [0, 5]"] ;
248 -> 249 ;
250 [label="gini = 0.0\nsamples = 1\nvalue = [1, 0]"] ;
248 -> 250 ;
}